cart_position,cart_velocity,pend_angle,angular_velo
0.0,-0.7089536786079407,0.12703478336334229,1.0833511352539062
0.0,-0.17946846783161163,0.20147211849689484,0.582705557346344
0.0,-0.2553984224796295,0.07423834502696991,0.45617520809173584
0.0,-0.12116934359073639,-0.014267544262111187,0.13640885055065155
0.0,-0.36564865708351135,0.07454761117696762,0.5706133246421814
0.0,-0.1907704472541809,0.3164876103401184,0.9477654099464417
0.0,0.2072584480047226,-0.08504210412502289,-0.37494146823883057
0.0,0.4904589354991913,-0.11102832853794098,-0.7614091038703918
0.0,-0.16560283303260803,0.056272923946380615,0.29767975211143494
0.0,0.1781521886587143,-0.028438750654459,-0.24833756685256958
0.0,-0.5693513751029968,0.07422635704278946,0.8371825814247131
0.0,-0.20588649809360504,0.21953445672988892,0.7020338773727417
0.0,-0.49875491857528687,0.2058631181716919,0.9609919786453247
0.0,0.5065208077430725,-0.10970745980739594,-0.7952554225921631
0.0,-0.08673231303691864,-0.03598649799823761,0.06847390532493591
0.0,0.21401654183864594,0.011522000655531883,-0.22944217920303345
0.0,-0.27895602583885193,0.09769503027200699,0.5103258490562439
0.0,0.8684284687042236,-0.21676230430603027,-1.4382166862487793
0.0,0.0987025648355484,0.0006211847066879272,-0.11853934079408646
0.0,0.48980042338371277,-0.12397293746471405,-0.7987467646598816
0.0,-0.2575334906578064,0.19881153106689453,0.7366118431091309
0.0,0.41712769865989685,-0.09496530890464783,-0.6582504510879517
0.0,0.5077686905860901,-0.16580450534820557,-0.8968405723571777
0.0,-0.12574352324008942,-0.026685118675231934,0.1272181272506714
0.0,0.4074181616306305,-0.19580401480197906,-0.8651913404464722
0.0,0.26930782198905945,-0.09405748546123505,-0.4824236035346985
0.0,0.26515188813209534,0.15570871531963348,0.14178867638111115
0.0,-0.23937992751598358,0.1715317666530609,0.6295025944709778
0.0,-0.10774127393960953,-0.05973808467388153,0.027796920388936996
0.0,-0.18103812634944916,0.06099142134189606,0.3192320466041565
0.0,-0.44494351744651794,0.027431081980466843,0.6023370027542114
0.0,-0.687522828578949,0.28483259677886963,1.4079880714416504
0.0,0.22129423916339874,0.24237516522407532,0.4451993703842163
0.0,-0.12186448276042938,0.09336446225643158,0.31929516792297363
0.0,0.1842549443244934,-0.031018195673823357,-0.2764032185077667
0.0,-0.5059070587158203,0.11219626665115356,0.8087236285209656
0.0,-0.25184115767478943,0.22709938883781433,0.8441829085350037
0.0,0.3330673575401306,-0.07955797761678696,-0.5349543690681458
0.0,-0.05031449720263481,-0.03270523622632027,0.01329958438873291
0.0,-0.28371956944465637,-0.006494253873825073,0.3533972501754761
0.0,0.16504336893558502,-0.052344467490911484,-0.2813648283481598
0.0,-0.21758154034614563,0.18964967131614685,0.6909350752830505
0.0,0.4427906274795532,0.2707945704460144,0.31188419461250305
0.0,-0.0686916708946228,-0.020534612238407135,0.06107252836227417
0.0,0.0019289759220555425,-0.045543503016233444,-0.06173645704984665
0.0,-0.04185427725315094,0.03426657244563103,0.13364484906196594
0.0,0.6983956694602966,-0.25234830379486084,-1.3076667785644531
0.0,-0.2773744463920593,0.10805618762969971,0.5181647539138794
0.0,0.13843634724617004,-0.061309441924095154,-0.25754743814468384
0.0,0.41121262311935425,-0.10583439469337463,-0.6591777205467224
0.0,0.08460965007543564,0.07457675784826279,0.04525138437747955
0.0,-0.473641961812973,-0.12010713666677475,0.17057214677333832
0.0,-0.28289932012557983,0.294219970703125,1.015429139137268
0.0,0.3452191650867462,0.23613496124744415,0.3027281165122986
0.0,0.5502771139144897,0.24688731133937836,0.25109830498695374
0.0,-0.6691160202026367,0.15241000056266785,1.0748510360717773
0.0,0.34298086166381836,-0.12230300903320312,-0.6107606291770935
0.0,0.38321077823638916,-0.20792227983474731,-0.8561926484107971
0.0,-0.44774487614631653,0.09641889482736588,0.7284401059150696
0.0,0.5711724758148193,-0.23904570937156677,-1.1223077774047852
0.0,0.011294621974229813,-0.360226035118103,-0.9575394988059998
0.0,-0.1206221953034401,0.008342074230313301,0.16831859946250916
0.0,-0.38916417956352234,0.016034841537475586,0.5272624492645264
0.0,0.36772608757019043,-0.11903966963291168,-0.6299223303794861
0.0,0.18045203387737274,-0.07631753385066986,-0.3381502032279968
0.0,-0.253719687461853,0.04077702760696411,0.39153018593788147
0.0,0.4445970058441162,-0.055361516773700714,-0.6329950094223022
0.0,-0.12141162157058716,-0.06816024333238602,0.03441685438156128
0.0,0.34361135959625244,-0.09583063423633575,-0.5710378885269165
0.0,-0.025659652426838875,-0.0270895566791296,-0.015274733304977417
0.0,0.21164517104625702,-0.1569749116897583,-0.5489214062690735
0.0,0.925029456615448,-0.09831103682518005,-1.1509677171707153
0.0,0.28103742003440857,-0.019734283909201622,-0.3776629865169525
0.0,-0.2837528884410858,0.08731328696012497,0.4948669672012329
0.0,0.30824562907218933,0.009349483996629715,-0.3834589421749115
0.0,-0.16304345428943634,0.019176185131072998,0.23163336515426636
0.0,0.5342462658882141,-0.2379712164402008,-1.10014009475708
0.0,0.2589911222457886,-0.32234230637550354,-1.0662548542022705
0.0,-0.037234172224998474,0.07353745400905609,0.17139914631843567
0.0,-0.28811541199684143,0.2450110763311386,0.9006081223487854
0.0,-0.31543657183647156,-0.019817952066659927,0.3616959750652313
0.0,-0.3710448741912842,0.01306523010134697,0.5088568329811096
0.0,-0.041672974824905396,0.061653368175029755,0.1603415608406067
0.0,0.4843989610671997,0.01206512376666069,-0.5543445944786072
0.0,-0.6329026222229004,0.12437596917152405,1.0138158798217773
0.0,0.026566114276647568,0.02497372403740883,0.008893730118870735
0.0,0.03281896188855171,-0.15091237425804138,-0.3781360685825348
0.0,0.07779552042484283,-0.0471804216504097,-0.14349614083766937
0.0,0.1406295746564865,-0.10642421245574951,-0.34954267740249634
0.0,0.46457692980766296,-0.14339213073253632,-0.828437328338623
0.0,0.49013790488243103,-0.05225887894630432,-0.7146739363670349
0.0,-0.44758978486061096,0.2771914005279541,1.106869101524353
0.0,0.30125489830970764,-0.04656745493412018,-0.44778335094451904
0.0,-0.36355358362197876,0.13400106132030487,0.6921030282974243
0.0,-0.13532467186450958,0.11030146479606628,0.3658781051635742
0.0,0.08049153536558151,-0.20318914949893951,-0.5379742383956909
0.0,-0.09025466442108154,-0.08817696571350098,-0.0866284966468811
0.0,-0.0674792230129242,-0.055886540561914444,-0.023759260773658752
0.0,-0.21736912429332733,0.11999759078025818,0.485223650932312
0.0,0.2701199948787689,0.032843153923749924,-0.25527507066726685
